FANN_FLO_2.1
num_layers=3
learning_rate=0.700000
connection_rate=1.000000
network_type=0
learning_momentum=0.000000
training_algorithm=2
train_error_function=1
train_stop_function=0
cascade_output_change_fraction=0.010000
quickprop_decay=-0.000100
quickprop_mu=1.750000
rprop_increase_factor=1.200000
rprop_decrease_factor=0.500000
rprop_delta_min=0.000000
rprop_delta_max=50.000000
rprop_delta_zero=0.100000
cascade_output_stagnation_epochs=12
cascade_candidate_change_fraction=0.010000
cascade_candidate_stagnation_epochs=12
cascade_max_out_epochs=150
cascade_min_out_epochs=50
cascade_max_cand_epochs=150
cascade_min_cand_epochs=50
cascade_num_candidate_groups=2
bit_fail_limit=3.49999999999999977796e-01
cascade_candidate_limit=1.00000000000000000000e+03
cascade_weight_multiplier=4.00000000000000022204e-01
cascade_activation_functions_count=10
cascade_activation_functions=3 5 7 8 10 11 14 15 16 17 
cascade_activation_steepnesses_count=4
cascade_activation_steepnesses=2.50000000000000000000e-01 5.00000000000000000000e-01 7.50000000000000000000e-01 1.00000000000000000000e+00 
layer_sizes=3 4 2 
scale_included=0
neurons (num_inputs, activation_function, activation_steepness)=(0, 0, 0.00000000000000000000e+00) (0, 0, 0.00000000000000000000e+00) (0, 0, 0.00000000000000000000e+00) (3, 8, 5.00000000000000000000e-01) (3, 8, 5.00000000000000000000e-01) (3, 8, 5.00000000000000000000e-01) (0, 8, 0.00000000000000000000e+00) (4, 8, 5.00000000000000000000e-01) (0, 8, 0.00000000000000000000e+00) 
connections (connected_to_neuron, weight)=(0, 2.80526386706506980495e-01) (1, -6.32915057544128911715e-01) (2, 2.43256971299247087837e-01) (0, 1.07956202553892222085e+00) (1, -1.57046491452944914080e+00) (2, 3.60570095466195006395e-01) (0, -3.03603668158796224930e+00) (1, 3.25717842790857625701e+00) (2, 3.21682713436011402663e-01) (3, -4.83919214899166116872e-01) (4, -2.23388962577329319714e+00) (5, -1.97655141071750106718e+00) (6, -5.13441786611898431936e-01) 
