FANN_FLO_2.1
num_layers=3
learning_rate=0.700000
connection_rate=1.000000
network_type=0
learning_momentum=0.000000
training_algorithm=2
train_error_function=1
train_stop_function=0
cascade_output_change_fraction=0.010000
quickprop_decay=-0.000100
quickprop_mu=1.750000
rprop_increase_factor=1.200000
rprop_decrease_factor=0.500000
rprop_delta_min=0.000000
rprop_delta_max=50.000000
rprop_delta_zero=0.100000
cascade_output_stagnation_epochs=12
cascade_candidate_change_fraction=0.010000
cascade_candidate_stagnation_epochs=12
cascade_max_out_epochs=150
cascade_min_out_epochs=50
cascade_max_cand_epochs=150
cascade_min_cand_epochs=50
cascade_num_candidate_groups=2
bit_fail_limit=3.49999999999999977796e-01
cascade_candidate_limit=1.00000000000000000000e+03
cascade_weight_multiplier=4.00000000000000022204e-01
cascade_activation_functions_count=10
cascade_activation_functions=3 5 7 8 10 11 14 15 16 17 
cascade_activation_steepnesses_count=4
cascade_activation_steepnesses=2.50000000000000000000e-01 5.00000000000000000000e-01 7.50000000000000000000e-01 1.00000000000000000000e+00 
layer_sizes=3 4 2 
scale_included=0
neurons (num_inputs, activation_function, activation_steepness)=(0, 0, 0.00000000000000000000e+00) (0, 0, 0.00000000000000000000e+00) (0, 0, 0.00000000000000000000e+00) (3, 8, 5.00000000000000000000e-01) (3, 8, 5.00000000000000000000e-01) (3, 8, 5.00000000000000000000e-01) (0, 8, 0.00000000000000000000e+00) (4, 8, 5.00000000000000000000e-01) (0, 8, 0.00000000000000000000e+00) 
connections (connected_to_neuron, weight)=(0, 3.33489874939374764118e-01) (1, -3.63063380595726348243e-01) (2, 8.42711779204087380046e-02) (0, -1.04596746931312378770e+00) (1, 9.60473346716757214736e-01) (2, 7.86632414989053563303e-02) (0, 1.19807412288840020587e+00) (1, -9.30247929134354722969e-01) (2, 4.15395392027860382855e-02) (3, -6.28203027065782459992e-01) (4, -1.84799059663882059290e+00) (5, -1.74061332936564361340e+00) (6, -6.26874907503542244669e-01) 
